svm_type c_svc
kernel_type rbf
gamma 0.142857
nr_class 5
total_sv 30
rho 0.603262 0 0.753784 0.628982 -0.154551 0.651864 0.0809701 0.23556 0.946329 -0.0585371
label 1 2 3 4 5
nr_sv 1 6 1 12 10
SV
1 1 1 1 1:-1 2:-0.422657 3:-1 4:-0.873239 5:-1 6:-1 7:-0.385306 
-0 0 1 1 1:-0.283399 2:-0.935615 3:-0.214068 4:-0.617112 5:0.26929 6:0.027062 7:-0.831178 
-0 0 1 1 1:-0.290805 2:-1 3:-0.204764 4:-0.715499 5:0.0759629 6:0.0833866 7:-0.930883 
-0 0 1 1 1:-0.323618 2:-0.970681 3:-0.177445 4:-0.734376 5:0.132106 6:0.0873386 7:-0.871273 
-0 0 1 1 1:-0.343489 2:-0.940833 3:-0.137822 4:-0.617723 5:0.275277 6:0.074492 7:-0.845553 
-1 0 1 1 1:-0.703162 2:-0.921254 3:-0.365975 4:-0.869885 5:0.172987 6:-0.0365819 7:-0.972949 
-0 1 1 1 1:-0.228734 2:-0.951072 3:-0.105109 4:-0.730577 5:0.296832 6:0.115175 7:-0.726518 
-1 -1 1 1 1:1 2:1 3:0.857227 4:1 5:0.28976 6:1 7:1 
-0 -1 -0.5482909612703306 1 1:-0.556323 2:-0.245286 3:-0.406588 4:-0.451993 5:0.00329523 6:0.0870101 7:-0.691307 
-1 -0 -0.2426058717110831 1 1:-0.366618 2:-0.476461 3:-0.889445 4:-0.76127 5:-0.140004 6:-0.141003 7:-0.16965 
-0 -1 -0 1 1:-0.384864 2:-0.474785 3:-0.610698 4:-0.746196 5:0.280561 6:0.274717 7:-0.6624 
-0 -0 -0 1 1:-0.272077 2:-0.466191 3:-0.717897 4:-0.707535 5:0.298095 6:0.329175 7:-0.759515 
-0 -1 -0 1 1:-0.472547 2:-0.52946 3:-0.678241 4:-0.764133 5:0.39038 6:0.233327 7:-0.744337 
-0 -0.9167451248318009 -0.2091031670185861 1 1:-0.210262 2:-0.511217 3:-0.675478 4:-0.74156 5:0.309335 6:0.385426 7:-0.73091 
-0 -0.08325487516819907 -0 0 1:-0.451086 2:-0.614535 3:-0.816915 4:-0.797702 5:0.12154 6:0.324387 7:-1 
-0 -1 -0 0 1:-0.484585 2:-0.872984 3:-0.727353 4:-1 5:0.187448 6:0.162724 7:-0.940898 
-0 -1 -0 0 1:-0.439771 2:-0.595616 3:-0.768245 4:-0.808542 5:0.154924 6:0.183266 7:-0.837664 
-0 -0 -0 1 1:-0.409868 2:-0.474365 3:-0.754386 4:-0.83035 5:0.538308 6:0.156493 7:-0.693193 
-0 -0 -0 1 1:-0.375368 2:-0.516965 3:-0.738358 4:-0.773696 5:0.303691 6:0.284937 7:-0.75178 
-0 -0 -0 1 1:-0.415623 2:-0.47221 3:-0.698911 4:-0.736711 5:0.416801 6:0.272676 7:-0.726993 
-0.1432729023159011 -0 -1 -0 1:0.855396 2:0.64564 3:1 4:0.715734 5:0.478614 6:0.83875 7:0.789113 
-0 -1 -0 -1 1:-0.344256 2:-0.079574 3:-0.228626 4:-0.333083 5:0.487229 6:0.207541 7:-0.299196 
-0 -0 -0 -1 1:-0.133585 2:-0.0381581 3:-0.161604 4:-0.27233 5:0.208079 6:0.268045 7:-0.320729 
-0 -1 -0 -1 1:-0.174289 2:-0.217122 3:-0.127721 4:-0.231276 5:0.206983 6:0.31885 7:-0.314938 
-0 -0 -0 -1 1:-0.252734 2:-0.0499604 3:-0.272098 4:-0.348579 5:0.507179 6:0.224464 7:-0.330409 
-0 -1 -0 -1 1:-0.244646 2:-0.202822 3:-0.18621 4:-0.405383 5:0.359869 6:0.256165 7:-0.3048 
-0 -0 -0 -1 1:-0.109903 2:-0.138713 3:-0.16726 4:-0.259133 5:0.334949 6:0.287937 7:-0.35377 
-0.8567270976840988 -1 -0 -1 1:-0.273567 2:-0.322048 3:-0.229501 4:-0.384021 5:0.0574683 6:0.351347 7:-0.594892 
-0 -1 -0 -1 1:0.00105388 2:-0.248985 3:-0.138475 4:-0.25265 5:0.14774 6:0.357518 7:-0.35254 
-0 -1 -0 -1 1:0.0069764 2:-0.231846 3:-0.118807 4:-0.240454 5:0.139581 6:0.363451 7:-0.391312 
