svm_type c_svc
kernel_type rbf
gamma 0.03125
nr_class 13
total_sv 49
rho 0 0.0649831 0 0.00451963 0 0.0210258 0 0 0 0 0.0013966 0 0.089151 0 0.00422179 0 0.0218678 0 0 0 0 0.00472643 0 0 -0.0151682 -0.00127496 -0.280265 0 -0.0270157 -0.029333 -0.0210596 0.010525 0 0.0286253 0.0461626 0.00145899 0 -0.0218752 0 0 0.24783 0 0 -0.00147682 -0.00837031 0 -0.00792815 0 0.0351554 0 0 -0.00761275 -0.0545116 -0.0108096 0 8.45895 -0.0287161 9.36751e-17 0.0026997 -0.0201212 -0.00134619 0.0441634 0 0 0 0 -0.0566656 -0.00684158 -1.38778e-17 0 0.0841075 0 0 0.0567337 0 0 0 -0.120688
label 1 2 3 4 5 6 7 8 9 10 11 0 12
probA 0.693147 -3.1489 -11.5257 86.6892 -0.420089 -7.98824 0.659239 -8.43131 0.693147 0.693147 -4.11236 0.693147 -4.64878 -8.77194 71.7656 -0.162704 -4.61623 0.385954 -10.8007 0.693147 0.693147 -3.27386 0.693147 -2.30618 -7.36459 -1.65975 -2.49051 -1.71944 -2.53883 -0.111826 -10.0067 -2.99197 -1.60006 -1.4716 -1.64868 -2.71725 -1.39774 -2.00753 -51.1213 -2.54839 -2.98371 -4.38666 -1.25923 -2.37805 -1.12116 -1.67217 56.7156 0.155113 -3.5606 14.9535 -7.59288 -1.3115 -1.91275 23.5333 0.427912 -1.62397 -0.196724 -2.23608 -2.9876 -17.6399 -42.0339 -3.37659 -7.19239 -1.74707 77.486 3.41951 -1.89482 62.9331 -12.8318 -1.49453 -3.00705 -4.22037 0.693147 -26.1879 0.693147 -5.37473 0.693147 -2.98244
probB 2.3919e-16 -0.833374 -10.1039 86.1147 0.342462 -5.3394 1.1078 -6.4065 2.3919e-16 2.3919e-16 1.03587 2.3919e-16 -2.61745 -7.40146 71.3643 0.605335 -1.97616 0.835934 -9.09304 2.3919e-16 2.3919e-16 1.88369 2.3919e-16 -0.379328 5.34323 -0.733758 0.379435 -0.759621 -0.0372212 -2.39995 7.81135 1.08586 -0.776658 -0.283327 -0.155247 0.754179 -0.374163 0.418593 50.5109 1.15754 1.85456 3.14696 0.13074 1.23005 -0.0124618 0.53169 -56.0288 -0.600292 2.38106 -15.1738 -6.04506 -0.256459 0.463551 -24.0483 -1.19487 1.72504 -0.56993 -1.12224 -0.436763 14.5757 39.3835 0.459675 4.7111 0.641049 -77.6069 -3.84731 2.03547 -62.2828 10.8372 -0.304597 1.3289 2.18177 2.3919e-16 -20.9569 2.3919e-16 -0.256715 2.3919e-16 -2.62618
nr_sv 1 1 5 4 2 3 10 2 5 1 1 13 1
SV
6.470379794872665 3.398613786800593 1.379695845826052 1.080514889540781 1.945898523922112 3.507832485445088 1.872811952934164 1.432805188401166 1.002778970573054 1.095337891426299 3.204895172221976 1.471887611242789 1:0.0047 2:0.0234 3:1.2848 4:2.386 5:1.135 6:1.9543 7:0.0939 8:0.0796 9:0.2901 10:1.1488 11:1.3098 
-6.470379794872665 5.460255282785695 1.527596517576398 1.105151927711685 2.74943297874293 6.579928252948188 2.31559223576475 1.595078053902429 1.00369996607279 1.128507175819518 4.646096845675666 2.022182369164002 1:1.7208 2:1.1091 3:1.8679 4:2.3529 5:0.8574 6:1.6602 7:0.234 8:0.0297 9:0.1203 10:1.8368 11:1.7785 
-0.9976924641720387 -1.272948805261276 2.144642699865484 0.86380892926803 9.051344629451998 20.27459621166945 4.171696533560502 1.952337280477694 0.3103727786640505 0.7280202839068857 29.19232102701313 3.695654022334001 1:1.9562 2:0.916 3:2.8612 4:1.9684 5:1.8423 6:2.8514 7:1.8147 8:0.9993 9:0.9846 10:1.0066 11:1.8924 
-1.692132904386535 -0 0 0 0 0 0 0 0.3705799734984318 0 0 0 1:1.6648 2:1.0761 3:2.5562 4:1.1571 5:1.5847 6:1.6727 7:1.8874 8:0.9144 9:0.1577 10:0.9276 11:1.8437 
-0 -3.36248319170369 0 0 0 35.56663566273114 0 0 0 0 0 0 1:1.6701 2:1.0938 3:2.7357 4:1.2488 5:1.4865 6:1.6969 7:1.9396 8:0.8422 9:0.1199 10:0.9819 11:1.8407 
-0.7087884182420195 -0.8248232858207299 0 0 0 0 0 0 0 0 0 0 1:1.7544 2:1.0349 3:2.6136 4:0.9338 5:1.5744 6:1.8558 7:1.6784 8:0.9394 9:0.1988 10:0.9515 11:1.66 
-0 -0 0 0.3733168664397425 0.01951506065276959 0 0 0.5352988423958375 0.3566151863786963 0.589734557077742 0 0 1:1.8819 2:1.0039 3:3.1262 4:1.1285 5:2.4904 6:3.0943 7:2.177 8:0.9433 9:0.1359 10:0.9724 11:1.8307 
-0 -0 -0 0 0 0 0 0.9869425478367562 0 0 0 0 1:1.9034 2:0.9819 3:4.6108 4:4.9014 5:2.0113 6:5.3455 7:2.0862 8:0.9097 9:1.6717 10:2.7073 11:1.8764 
-0 -0 -0 0 0 0 0 5.712768875342088 0 0 0 0 1:1.8964 2:0.9626 3:4.7893 4:4.7552 5:2.0964 6:5.3053 7:1.9772 8:0.9853 9:1.8418 10:2.7918 11:1.8773 
-1.379695845826052 -1.527596517576398 -2.144642699865484 0 4.762978493746775 1.972541108441589 10.7429254933249 16.82698527093719 0 0 10.33234306316796 3.0298221535172 1:1.8388 2:1.0104 3:4.613 4:4.9776 5:2.0386 6:4.9869 7:2.1177 8:0.8907 9:1.5439 10:2.7183 11:1.9051 
-0 -0 -0 7.143565880634254 0 0 0 0 1.241513273233651 5.221075483511983 0 0 1:1.9117 2:1.003 3:5.05 4:5.5901 5:2.2226 6:5.6309 7:2.1803 8:0.9634 9:1.7164 10:2.9298 11:1.9515 
-0.4257910743560069 -0.3574206178502444 -0.1090070840935319 -4.578099631911603 0 0.2205212387644098 0.9531266258359319 0 0.8702420760179242 0 0 0 1:1.8739 2:1.0043 3:5.6443 4:6.3944 5:2.8594 6:7.3553 7:2.3075 8:0.9364 9:1.7445 10:3.6428 11:1.8781 
-0.6547238151847741 -0.7477313098614401 -1.128118711614241 -2.565466248722651 1.724039472052207 0.9609543627558191 0.9555245512073917 6.653113424269018 0.9412983426109519 16.15376157212388 2.099467259793689 1.489710721738992 1:1.9697 2:0.9581 3:5.8518 4:5.7782 5:2.9859 6:7.359 7:2.0522 8:0.986 9:1.8635 10:3.8204 11:1.8413 
-0 -0 -0 -0 -0 0 0 0 0 0 2.002476749845398 3.739314818004333 1:3.4767 2:1.0602 3:3.8125 4:3.2016 5:1.9006 6:3.6767 7:2.1911 8:0.9351 9:0.8759 10:1.8341 11:1.9773 
-1.945898523922112 -2.74943297874293 -9.070859690104768 -1.580449741995092 -0 6.570925682953099 9.201337728276032 3.220800137418233 0.39558555707146 0 512 0 1:2.5188 2:0.9925 3:3.8374 4:2.8416 5:1.9325 6:3.7336 7:1.893 8:0.9935 9:0.8612 10:1.9484 11:1.8201 
-0 -0 -0 -3.182528751751682 -1.724039472052207 0 0.1775504650395912 3.01883374431233 0.6578560697516808 1.915992294103143 2.792118962372534 10.2639028200608 1:3.5158 2:1.0165 3:4.0715 4:3.2774 5:2.0203 6:4.0315 7:1.9793 8:0.9588 9:0.93 10:2.0845 11:2.0644 
-0.5903591416436322 -0.3003427792842352 -18.90690136398639 -0 -0 -0 0 0 0.4566616669350678 0 0 0 1:1.8789 2:0.9838 3:2.4814 4:1.1855 5:1.0902 6:1.1891 7:1.7763 8:0.934 9:0.6165 10:0.7061 11:1.8831 
-0 -0 -0 -0 -0.2063090306994432 -0 0 0 0.3078672568254829 0.1836832893956975 0 0 1:1.8291 2:1.002 3:3.4675 4:2.0775 5:1.122 6:1.8912 7:2.033 8:0.9248 9:0.9022 10:1.0667 11:1.9049 
-0 -0 -9.973908948190889 -0 -0 -0 0 0 0 0 0 0 1:1.7529 2:1.0348 3:2.6855 4:1.9789 5:1.1567 6:1.8799 7:2.068 8:0.914 9:0.867 10:0.9832 11:1.9359 
-0 -0 -3.619614819938384 -0 -0 -0 0 0 0 0 0 0 1:1.7414 2:1.0098 3:2.7775 4:2.0599 5:1.2045 6:1.8919 7:1.8828 8:0.9102 9:0.8906 10:1.0333 11:1.9555 
-2.902216550325858 -0 -0 -0 -0 -0 0 0 0 0 0 0 1:1.7555 2:1.0213 3:2.6533 4:2.0176 5:1.0855 6:1.8003 7:1.928 8:0.9258 9:0.8533 10:1.1581 11:1.8587 
-0 -4.13745990852024 -1.163380962375141 -0 -0 -0 0 0 0 0 0 0 1:1.8706 2:1.0269 3:2.7989 4:1.8336 5:1.0988 6:1.8996 7:1.7099 8:0.9487 9:0.9275 10:1.245 11:1.8098 
-0.01525679347559823 -2.142125565143712 -0 -0 -0 -0 0 0 0 0 0 0 1:1.7835 2:1.0331 3:2.6285 4:2.1327 5:1.0309 6:1.7409 7:1.9078 8:0.9355 9:0.8915 10:1.141 11:1.9057 
-0 -0 -0 -1.120341404080256 -0.1064021218986808 -0 4.085576592920893 0 0.181612236650793 0 0 0 1:1.9897 2:1.0136 3:2.9751 4:2.2346 5:1.1723 6:2.0489 7:2.1078 8:0.9881 9:1.0091 10:1.0582 11:1.9557 
-0 -0 -0 -0 -0 -0 0 0 0.07868412055482089 0 0 0 1:1.8175 2:1.0581 3:2.8652 4:2.2997 5:1.1113 6:1.8877 7:2.3563 8:0.8998 9:0.8152 10:0.9821 11:2.0382 
-0 -0 -22.1774257799098 -0.852199704361333 -0.868764448922105 -6.570925682953099 0 2.095074045741319 0 1.041792238304755 17.50304905828784 3.432293627231157 1:2.0151 2:1.004 3:3.1152 4:2.0566 5:1.1788 6:2.1544 7:1.9422 8:1.0343 9:0.9698 10:1.0652 11:2.0031 
-1.872811952934164 -2.31559223576475 -4.171696533560502 -0 -0 -9.378888193315623 -4.085576592920893 0 0 0 93.36927793025228 1.804766752607284 1:1.8535 2:0.9825 3:3.8275 4:4.2609 5:1.2395 6:3.7194 7:1.9611 8:0.9148 9:1.6717 10:1.9729 11:1.7727 
-0 -0 -0 -10.7429254933249 -1.908651177043324 -0 -0 6.248537141575943 1.048919340801101 1.879139518180584 13.56797875573427 2.331481451240447 1:1.8994 2:1.0019 3:3.9417 4:4.5868 5:1.3448 6:3.7832 7:2.165 8:0.9235 9:1.6951 10:1.9702 11:1.9634 
-0 -0 -0 -17.43867992554444 -0 -0 -0 -0 0 0 0 0 1:1.8624 2:1.0465 3:4.7071 4:4.3965 5:2.7436 6:5.3145 7:2.3032 8:0.939 9:0.8898 10:2.7645 11:1.9114 
-1.432805188401166 -1.595078053902429 -2.487636122873532 -0 -0 -2.887772783718245 -1.715054216007373 -0 0 0 16.94962695533319 0 1:1.7867 2:1.054 3:4.5669 4:3.8434 5:2.5617 6:5.4163 7:1.8886 8:0.9622 9:0.891 10:2.744 11:1.8066 
-0 -0 -0 -0 -6.653113424269018 -0 -0 -0 1.284308103514651 10.69776291659971 0 0 1:1.9465 2:0.9939 3:5.0325 4:4.574 5:2.9244 6:6.0306 7:2.1528 8:0.9935 9:1.0198 10:3.0486 11:1.8945 
-0 -0 -0 -0.7071412278309872 -0 -0 -0 -0 0 0 0 0 1:1.8671 2:1.027 3:4.701 4:4.3902 5:2.7447 6:5.4936 7:2.1757 8:0.939 9:0.9343 10:3.2866 11:1.8602 
-0 -0 -0 -5.380875540740605 -0 -3.351861098012318 -0.3800198297339454 -6.248537141575943 0 0 1.855223528420084 3.397650857542913 1:1.8978 2:1.0256 3:4.6624 4:4.2058 5:2.6292 6:5.1678 7:2.1013 8:0.9358 9:0.8407 10:2.7522 11:1.908 
-1.002778970573054 -1.00369996607279 -1.037567938541179 -1.241513273233651 -1.811540418628876 -1.053441626823141 -1.024825280966165 -1.048919340801101 -1.284308103514651 1.721432559846125 1.109919664111734 1.031552421349276 1:1.8392 2:0.9722 3:7.5064 4:7.3433 5:5.0707 6:10.9498 7:2.2975 8:0.9432 9:0.902 10:5.4165 11:1.8423 
-1.095337891426299 -1.128507175819518 -1.317754840984628 -5.221075483511983 -16.15376157212388 -1.915992294103143 -1.225475527700453 -1.879139518180584 -10.69776291659971 -1.721432559846125 2.561123148792973 1.606412084061848 1:1.9593 2:0.967 3:5.868 4:4.8785 5:3.6112 6:7.1644 7:2.139 8:0.9803 9:0.9717 10:3.816 11:1.8984 
-3.117127119489708 -3.287397118838174 -0 -0 -0 -0 -0 -0 -0 -0.2612953545088717 -0 0 1:1.5226 2:1.0145 3:3.2109 4:2.2797 5:1.6029 6:3.1829 7:1.4174 8:0.9987 9:0.8875 10:1.6391 11:1.5059 
-0 -0 -0 -0 -0 -0 -4.429905953569091 -0 -0 -0 -0 0 1:1.4011 2:0.9739 3:3.5093 4:2.7293 5:1.694 6:2.9188 7:2.0349 8:0.876 9:0.8137 10:1.5364 11:1.8535 
-0.08776805273226738 -0 -1.921850868123921 -0 -0 -0 -0 -0 -0 -0 -0 0 1:1.5202 2:0.9383 3:3.1718 4:2.737 5:1.713 6:3.0532 7:1.8195 8:0.8595 9:0.8623 10:1.5613 11:1.8055 
-0 -0 -0 -0 -0 -0 -0 -0 -0 -0.02312889380638024 -0 0 1:1.536 2:1.0633 3:3.2704 4:3.5722 5:1.7032 6:2.9815 7:2.5158 8:0.8684 9:0.6846 10:1.5316 11:2.0268 
-0 -0 -0 -6.76424690912077 -0.4097589042650995 -0 -0 -106.3234263355163 -0.9796935709938174 -0.1031891079777398 -0 0 1:1.9042 2:1.0799 3:3.8921 4:4.0192 5:1.3446 6:3.9515 7:2.0482 8:0.904 9:1.4207 10:1.9066 11:2.0724 
-0 -0 -0 -0 -0 -78.6516434189582 -0 -0 -0 -0.1922248309989458 -0 9.400572331951384 1:3.4004 2:1.0583 3:3.6876 4:3.5341 5:1.8544 6:3.5389 7:2.2114 8:0.903 9:0.8407 10:1.8464 11:1.8678 
-0 -1.358699726837492 -27.27047015888921 -0 -0 -0 -13.07314310471875 -0 -0 -0 -0 0 1:1.6435 2:0.9851 3:3.2558 4:2.4818 5:1.663 6:3.0089 7:1.6474 8:0.952 9:0.8225 10:1.627 11:1.5825 
-0 -0 -0 -0 -0 -0 -0 -0.6138303504702477 -0 -0 -0 0 1:1.7734 2:1.0327 3:3.5666 4:3.6291 5:1.6511 6:3.2217 7:2.1452 8:0.9256 9:0.9846 10:1.7239 11:1.7913 
-0 -0 -0 -0 -0 -134.591698745494 -0 -0 -0 -0 -0 0 1:2.8574 2:1.0183 3:3.7894 4:3.3133 5:1.8461 6:3.7225 7:2.2132 8:0.938 9:0.8188 10:1.8728 11:1.8864 
-0 -0 -0 -3.568096154047184 -1.689708355528589 -0 -0 -0 -17.82515691275946 -0.5300814768197968 -2.561123148792973 0 1:1.9545 2:1.0308 3:4.2081 4:3.2349 5:2.7279 6:4.6954 7:2.0751 8:0.9525 9:0.8076 10:1.9528 11:1.9305 
-0 -0 -0 -0 -0 -116.5763035661317 -0 -0 -0 -0 -0 0 1:1.982 2:1.0451 3:3.814 4:2.7016 5:1.9386 6:4.0313 7:1.6611 8:1.0043 9:0.8841 10:2.0327 11:1.8738 
-0 -0 -0 -0 -0 -186.9749499816341 -0 -0 -0 -0 -0 0 1:1.9748 2:0.977 3:3.8797 4:2.7327 5:1.9595 6:3.6684 7:1.7064 8:1.0107 9:1.0037 10:1.9823 11:1.776 
-0 -0 -0 -0 -0 -0 -0 -0 -0 -0 -0 1.334249057996101 1:2.004 2:1.0234 3:4.2724 4:3.0058 5:2.1717 6:4.3105 7:1.914 8:0.9929 9:0.9651 10:2.1435 11:2.0209 
-1.471887611242789 -2.022182369164002 -3.695654022334001 -3.0298221535172 -1.489710721738992 -14.00321763806514 -3.432293627231157 -4.136248203847732 -3.397650857542913 -1.031552421349276 -1.606412084061848 -10.73482138994749 1:3.775 2:1.0367 3:3.8521 4:3.1609 5:1.8759 6:3.7754 7:1.9787 8:0.8871 9:0.9338 10:1.9 11:3.5279 
