svm_type c_svc
kernel_type rbf
gamma 0.0078125
nr_class 15
total_sv 78
rho 0 0 0 0.00614237 0.0627445 0.0271401 0 0 0.0657752 0.0247531 0 0.460597 0.0338669 0.0202519 0 0 0 0 0 0 0 0 0 0 0.0317628 0.0061436 0 0 0 0 0 0.328993 0 0 0.00429818 0 0.00482186 0.010581 0 0 -0.00425215 0.0515765 0 0.0250131 0.041969 0.0194221 0 0.68538 0.00224647 0 0.0836708 0 0.00645651 0 0 0.0332823 0 5.37571 0.00746967 0.0267979 -0.13775 -0.00416661 -0.0224919 -1.17329 0.0998238 -0.0246309 -0.192671 0.141862 0.0152939 0 -0.040571 0.161757 0.057079 0 14.8032 0.0274784 0 -0.0268127 0.0131174 0.00873832 0 0.188118 0.00606604 0 0.0180581 0.0317258 0 0.532513 0.00306389 0 0.0702247 -0.0514675 0.162763 0.0779024 -0.0596996 0 -0.0995142 -0.0453134 -0.120148 0.00258706 0 0 0.0153926 0.12042 -0.00922226
label 12 11 10 9 8 7 6 5 4 3 2 1 0 13 14
probA 0.693147 0.693147 -3.81309 68.3446 -2.86925 -0.332918 -1.37111 -3.06982 -2.45586 4.16395 0.693147 -1.57863 -1.29763 1.35627 0.693147 -1.12348 1.22068 -6.56941 -0.503638 -0.34977 -1.65241 -4.49613 5.00998 0.693147 -2.69586 -23.3944 -1.25347 -5.21377 1.80768 -23.4262 -1.95931 0.671374 -11.5503 -13.2335 18.6907 0.693147 -8.07946 19.2406 -2.69096 -3.82808 -2.94817 -1.85035 -1.37316 -1.96659 -2.61977 -1.9446 -4.87664 -2.64695 -2.40316 -2.11608 -2.33288 -1.28961 -1.07728 -1.37451 -1.89994 -1.20047 0.0771189 -1.52686 -1.64502 -1.38396 -2.24651 -3.37515 -2.69647 -2.42307 -3.02234 -3.36633 -3.29233 -2.12725 -2.61106 -1.21383 -1.58246 -1.81169 -1.34777 -0.756962 -1.61462 -1.77109 -1.38831 -1.14356 -2.27069 -1.21304 -3.06779 -3.1822 -1.77288 -1.44083 -2.4264 -1.62994 -5.41763 -2.58578 -2.09289 -1.71252 -2.70277 -2.98432 -3.03792 -2.49502 -2.27039 0.149756 -3.70264 -1.77716 -1.5196 -2.16514 -3.14075 -1.38742 -3.84357 -3.27746 -1.8597
probB 2.3919e-16 2.3919e-16 -1.86127 67.7153 0.301868 0.427689 -0.741773 -1.75901 0.255391 4.14151 2.3919e-16 4.06882 0.3196 2.35209 2.3919e-16 0.761838 1.66688 -3.36911 0.259464 0.344056 -0.231645 -1.81683 5.25296 2.3919e-16 2.92302 -21.9145 -0.313838 -3.30401 2.25666 -20.4573 -1.20357 1.25984 -10.8222 -10.565 18.7069 2.3919e-16 -2.49652 20.847 -1.7428 2.6664 0.651222 -0.456357 -0.707855 -0.425176 0.319417 -0.613378 2.97456 1.14298 -0.222316 -0.263543 1.29969 0.248192 0.0483684 0.345162 1.02369 0.115788 -0.529013 2.01745 0.540415 0.280242 -1.04163 -0.407847 -0.97487 -0.621667 -0.355725 0.0523877 0.236616 -0.3774 -1.14935 -0.0920368 0.130666 1.01398 0.0587604 0.0346129 1.85161 0.431488 0.194854 0.421324 1.11654 -0.0529579 2.43437 2.30622 0.424011 -0.288447 0.693833 -0.347563 4.18951 1.60533 0.0853892 -0.111648 -0.42925 0.139815 0.771968 -0.495036 -0.83329 -0.588877 1.02882 0.311846 -0.0794745 3.41949 -1.77863 -0.47118 -1.6624 -1.30236 -0.317521
nr_sv 1 1 1 5 2 11 3 3 4 8 2 1 26 6 4
SV
4.626214307025347 1.718807457829724 11.98190275336681 14.93770224962569 16.24008381788047 54.40877891272105 4.11858080300122 10.49447041044067 13.85808578647497 7.390232413434828 4.039965209116136 53.44223708371565 4.613701489754441 12.29842986831304 1:3.775 2:1.0367 3:3.8521 4:3.1609 5:1.8759 6:3.7754 7:1.9787 8:0.8871 9:0.9338 10:1.9 11:3.5279 
-4.626214307025347 5.117532439802585 41.26038689876002 5.78156663034496 3.380171180286504 5.935545133018252 63.09501173355797 19.31790714812086 3.611601838993561 2.598403126283058 2.18895970628106 10.79525850349959 1.795778886120769 5.512094121976141 1:1.9593 2:0.967 3:5.868 4:4.8785 5:3.6112 6:7.1644 7:2.139 8:0.9803 9:0.9717 10:3.816 11:1.8984 
-1.718807457829724 -5.117532439802585 3.184006725859545 1.868156005553731 1.498753965199286 1.849772858050256 9.556426785970471 2.977265040079076 1.541488754659516 1.366842557120292 1.297757958029631 2.291009178120427 1.187822698674973 1.869546096833708 1:1.8392 2:0.9722 3:7.5064 4:7.3433 5:5.0707 6:10.9498 7:2.2975 8:0.9432 9:0.902 10:5.4165 11:1.8423 
-0 -0 -0 0 0 0 0 0.7680026503845867 0 0 0 0 0 0 1:1.8671 2:1.027 3:4.701 4:4.3902 5:2.7447 6:5.4936 7:2.1757 8:0.939 9:0.9343 10:3.2866 11:1.8602 
-11.98190275336681 -0 -0 23.43969006414154 2.941948684706697 12.31113332515431 0 20.42400562554967 0 0 0 71.65542966022102 0 0 1:1.8978 2:1.0256 3:4.6624 4:4.2058 5:2.6292 6:5.1678 7:2.1013 8:0.9358 9:0.8407 10:2.7522 11:1.908 
-0 -0 -0 0 0 0 0 71.20002303310103 0 0 0 0 0 0 1:1.8624 2:1.0465 3:4.7071 4:4.3965 5:2.7436 6:5.3145 7:2.3032 8:0.939 9:0.8898 10:2.7645 11:1.9114 
-0 -41.26038689876002 -3.184006725859545 0 0 0 25.06156787762905 0 0 0 0 0 0 0 1:1.9465 2:0.9939 3:5.0325 4:4.574 5:2.9244 6:6.0306 7:2.1528 8:0.9935 9:1.0198 10:3.0486 11:1.8945 
-0 -0 -0 0 5.807390232962141 10.8604777336805 0 0 9.071809260599517 5.045891025704449 3.86630593592574 37.30684795157956 2.810531789808046 16.12646476724727 1:1.7867 2:1.054 3:4.5669 4:3.8434 5:2.5617 6:5.4163 7:1.8886 8:0.9622 9:0.891 10:2.744 11:1.8066 
-8.624336861649773 -5.78156663034496 -1.868156005553731 -23.43969006414154 0 0 5.877410657782971 41.44118722273265 0 0 0 200.2492900598608 0 0 1:1.8994 2:1.0019 3:3.9417 4:4.5868 5:1.3448 6:3.7832 7:2.165 8:0.9235 9:1.6951 10:1.9702 11:1.9634 
-6.31336538797592 -0 -0 -0 21.83788468840637 35.97636059527383 0 0 15.10126275786895 7.644254060879686 5.755090223779121 551.696268205917 3.918882235935636 16.70520996149837 1:1.8535 2:0.9825 3:3.8275 4:4.2609 5:1.2395 6:3.7194 7:1.9611 8:0.9148 9:1.6717 10:1.9729 11:1.7727 
-0 -0 -0 -0 -0 0 0 0 0 12.56590345904192 0 0 0 0 1:1.8706 2:1.0269 3:2.7989 4:1.8336 5:1.0988 6:1.8996 7:1.7099 8:0.9487 9:0.9275 10:1.245 11:1.8098 
-0 -0 -0 -0 -0 0 0 0 132.9819053603676 0.2745241083234851 0 0 41.18184442052529 0 1:1.8789 2:0.9838 3:2.4814 4:1.1855 5:1.0902 6:1.1891 7:1.7763 8:0.934 9:0.6165 10:0.7061 11:1.8831 
-7.418117619545505 -0 -0 -0 -0 15.37477049222555 0 0 0 0 0 4.878607815625873 0 0 1:2.2824 2:0.9965 3:3.5548 4:2.1375 5:1.1771 6:2.2434 7:2.1591 8:0.7187 9:1.0038 10:1.1811 11:2.1212 
-0 -0 -0 -0 -11.04505217697906 0 0.3000013940660503 1.948385439372076 0 0 0 0 0 0 1:1.7564 2:1.069 3:3.3212 4:2.5755 5:1.3216 6:2.3559 7:2.4949 8:1.001 9:2.1432 10:1.1161 11:2.2933 
-0 -0 -0 -0 -0 0 0 0 104.3404482284785 10.83270769339092 7.071048117585703 0 0 0 1:1.7193 2:1.0065 3:2.5017 4:2.1592 5:1.2197 6:2.1605 7:1.9015 8:0.8557 9:0.3258 10:1.1405 11:2.2337 
-0 -0 -0 -0 -0 0 0 0 0 0 0 13.93529661132416 0 0 1:1.9495 2:1.0063 3:3.1272 4:2.455 5:1.2647 6:2.1958 7:2.6357 8:1.0191 9:0.9445 10:1.207 11:1.9149 
-0 -0 -0 -0 -0 0 0 0 10.00034512863222 0 0 0 0 0 1:2.1265 2:0.9536 3:2.8093 4:2.1323 5:1.2082 6:2.306 7:2.0563 8:1.0309 9:0.9945 10:0.9917 11:1.7236 
-8.821966198334957 -3.380171180286504 -1.498753965199286 -8.749338917668839 -10.79283251142731 20.79588301183364 2.795798339904386 6.178802375887642 28.18125291372502 0 0 87.79730924658142 0 0.1638477796601719 1:1.881 2:1.1458 3:2.8627 4:2.5691 5:1.4252 6:2.9755 7:2.613 8:1.273 9:1.0234 10:1.0418 11:2.2966 
-0 -0 -0 -0 -0 0 0 0 0 0 6.25324932447865 0 0 0 1:1.6003 2:0.9421 3:2.5634 4:2.1815 5:1.3305 6:1.8165 7:1.9613 8:0.7291 9:1.1292 10:0.8699 11:1.9868 
-0 -0 -0 -0 -0 0 0 0 24.32361045628068 0 0 12.05627455276379 0 0 1:2.0529 2:1.1199 3:4.1946 4:2.2111 5:1.1412 6:1.6489 7:1.7933 8:1.0267 9:0.0936 10:1.0502 11:2.146 
-0 -0 -0 -0 -0 0 0 0 0 4.392892345179947 0 0 0 14.78944124176799 1:2.1581 2:0.9698 3:2.8087 4:2.396 5:1.2582 6:2.1981 7:1.6512 8:0.8721 9:0.4974 10:0.9912 11:1.911 
-13.8552153878682 -0 -0 -0 -0 -0 0 0 0 0 0 294.878831925749 0 0 1:3.4767 2:1.0602 3:3.8125 4:3.2016 5:1.9006 6:3.6767 7:2.1911 8:0.9351 9:0.8759 10:1.8341 11:1.9773 
-40.55356352485285 -5.935545133018252 -1.849772858050256 -11.08612511873886 -0 -0 5.128589385543171 12.10240804274971 0 0 0 0 0 0 1:3.5158 2:1.0165 3:4.0715 4:3.2774 5:2.0203 6:4.0315 7:1.9793 8:0.9588 9:0.93 10:2.0845 11:2.0644 
-0 -0 -0 -12.08548594009595 -35.97636059527383 -36.17065350405919 0 5.244244015050473 36.76571667380124 11.11348013225354 6.060226541261531 2048 5.234874327848774 23.50942074272951 1:2.5188 2:0.9925 3:3.8374 4:2.8416 5:1.9325 6:3.7336 7:1.893 8:0.9935 9:0.8612 10:1.9484 11:1.8201 
-4.11858080300122 -63.09501173355797 -2.897230379321995 -25.06156787762905 -2.971437587644649 -3.095799733970436 -5.128589385543171 9.224632599558255 3.021265587742294 2.343702460138592 2.073084781366326 8.34387089637613 1.684823058345639 4.757354778064331 1:1.9697 2:0.9581 3:5.8518 4:5.7782 5:2.9859 6:7.359 7:2.0522 8:0.986 9:1.8635 10:3.8204 11:1.8413 
-0 -0 -0 -0 -2.905973070138322 -0 -0 17.69734228423007 0 0 0 0 0 0 1:1.8739 2:1.0043 3:5.6443 4:6.3944 5:2.8594 6:7.3553 7:2.3075 8:0.9364 9:1.7445 10:3.6428 11:1.8781 
-0 -0 -6.659196406648477 -0 -0 -0 -0 0 0 0 0 0 0 0 1:1.7156 2:0.9995 3:8.1923 4:7.9175 5:4.1721 6:9.1629 7:4.782 8:1.6028 9:2.1725 10:3.6119 11:1.9089 
-10.49447041044067 -0 -0 -67.07055731236731 -41.44118722273265 -8.127187815259717 -17.34665205780018 -0 6.902874455461723 4.419090883239696 3.627013672521871 72.39840864887879 2.62606511998241 12.31289332755016 1:1.8388 2:1.0104 3:4.613 4:4.9776 5:2.0386 6:4.9869 7:2.1177 8:0.8907 9:1.5439 10:2.7183 11:1.9051 
-0 -0 -0 -4.939475215246899 -0 -0 -0 -0 0 0 0 0 0 0 1:1.9034 2:0.9819 3:4.6108 4:4.9014 5:2.0113 6:5.3455 7:2.0862 8:0.9097 9:1.6717 10:2.7073 11:1.8764 
-0 -19.31790714812086 -2.977265040079076 -0 -0 -0 -0 -26.92197488378833 0 0 0 0 0 0 1:1.9117 2:1.003 3:5.05 4:5.5901 5:2.2226 6:5.6309 7:2.1803 8:0.9634 9:1.7164 10:2.9298 11:1.9515 
-0 -0 -0 -20.38199878142106 -0 -0 -0 -0 0 0 0 0 0 0 1:1.8964 2:0.9626 3:4.7893 4:4.7552 5:2.0964 6:5.3053 7:1.9772 8:0.9853 9:1.8418 10:2.7918 11:1.8773 
-6.691428278806161 -0 -0 -2.598281026295064 -15.10126275786895 -81.64635630353871 -27.02676657037832 -0.7782289989794816 -5.98184810104723 0 2.798599974448009 116.6739057543902 0 10.49523476430282 1:1.9562 2:0.916 3:2.8612 4:1.9684 5:1.8423 6:2.8514 7:1.8147 8:0.9993 9:0.9846 10:1.0066 11:1.8924 
-0 -0 -0 -0 -0 -0 -0 -0 -0 0 6.443212499840819 0 25.54295112596105 0 1:1.6648 2:1.0761 3:2.5562 4:1.1571 5:1.5847 6:1.6727 7:1.8874 8:0.9144 9:0.1577 10:0.9276 11:1.8437 
-0 -0 -0 -0 -0 -0 -0 -0 -0 17.96543186459915 0 0 0 0 1:1.7569 2:1.0357 3:2.7435 4:0.9403 5:1.6045 6:1.8541 7:1.6062 8:0.9645 9:0.2451 10:0.9959 11:1.68 
-0 -0 -0 -0 -0 -0 -0 -0 -0 0 2.556337289573367 0 0 0 1:1.7544 2:1.0349 3:2.6136 4:0.9338 5:1.5744 6:1.8558 7:1.6784 8:0.9394 9:0.1988 10:0.9515 11:1.66 
-0 -0 -0 -0 -0 -218.1812057839453 -0 -0 -0 0 0 0 0 0 1:1.6701 2:1.0938 3:2.7357 4:1.2488 5:1.4865 6:1.6969 7:1.9396 8:0.8422 9:0.1199 10:0.9819 11:1.8407 
-0 -3.611601838993561 -1.541488754659516 -6.473528234304452 -0 -0 -9.738950103422901 -2.243036588762812 -0.9210263544144938 0 0 0 0 0 1:1.9778 2:0.9908 3:3.4023 4:1.3113 5:2.7808 6:3.5266 7:2.2071 8:0.8805 9:0.1576 10:0.9725 11:1.8312 
-2.625835503355222 -0 -0 -0 -0 -0 -0 -0 -0 0 0 0 0 0 1:2.2239 2:1.0446 3:3.4573 4:1.2028 5:2.4092 6:3.1404 7:2.445 8:0.7572 9:0.5504 10:0.9576 11:2.0589 
-4.540822004313591 -0 -0 -0 -0 -0 -0 -0 -0 6.435701407878573 0 0 0 5.667345121973793 1:2.2893 2:1.0675 3:3.0784 4:1.2063 5:1.7177 6:2.9932 7:1.9287 8:0.6679 9:0 10:1.3513 11:2.1836 
-0.993252270910436 -0 -0.1709728900963846 -0.8022384401325665 -6.228469042441689 -20.59517040655686 -2.593136847808628 -0.361498073009543 -2.223452171178554 -8.434802444971748 24.32908591274587 13.93228451895456 6.274925822854915 8.856123512566928 1:1.7208 2:1.1091 3:1.8679 4:2.3529 5:0.8574 6:1.6602 7:0.234 8:0.0297 9:0.1203 10:1.8368 11:1.7785 
-6.396980142524392 -2.598403126283058 -1.195869667023907 -4.243652585571883 -1.415785018437998 -7.470857199379425 -8.520343284444914 -1.982204387129048 -2.195638712061144 -15.96633082750598 0 6.274660393491329 3.245057754260877 9.846016844779417 1:2.3349 2:0.9475 3:2.5334 4:1.2487 5:1.6198 6:1.8352 7:0.4116 8:0.0661 9:0.1834 10:2.842 11:1.8548 
-4.039965209116136 -2.18895970628106 -1.297757958029631 -3.86630593592574 -5.755090223779121 -13.32429744206435 -6.060226541261531 -2.073084781366326 -3.627013672521871 -11.7981497638622 -24.32908591274587 12.02441978639137 7.031827442676696 10.15031124518037 1:0.0047 2:0.0234 3:1.2848 4:2.386 5:1.135 6:1.9543 7:0.0939 8:0.0796 9:0.2901 10:1.1488 11:1.3098 
-26.76865444427138 -0 -0 -0 -0 -0 -920.6864143687731 -0 -0 -0 -0 -0 0 0 1:3.4004 2:1.0583 3:3.6876 4:3.5341 5:1.8544 6:3.5389 7:2.2114 8:0.903 9:0.8407 10:1.8464 11:1.8678 
-0 -0 -0 -0 -0 -0 -852.1632654869096 -0 -0 -0 -0 -0 0 0 1:1.9748 2:0.977 3:3.8797 4:2.7327 5:1.9595 6:3.6684 7:1.7064 8:1.0107 9:1.0037 10:1.9823 11:1.776 
-0 -0 -0 -0 -66.83693128776439 -0 -0 -0 -0 -0 -0 -0 0 0 1:1.6899 2:1.064 3:3.6495 4:3.9961 5:1.7966 6:3.4066 7:2.6986 8:0.8758 9:0.8008 10:1.7967 11:1.9083 
-0 -0 -0 -0 -0 -33.70114002638762 -0 -0 -0 -91.70979321805363 -0 -0 2.93166095881746 0 1:1.6435 2:0.9851 3:3.2558 4:2.4818 5:1.663 6:3.0089 7:1.6474 8:0.952 9:0.8225 10:1.627 11:1.5825 
-0 -0 -0 -0 -75.23794645224281 -0 -0 -0 -0 -0 -0 -0 0 0 1:1.6791 2:1.0624 3:3.5974 4:3.6225 5:1.7977 6:3.274 7:1.9192 8:0.9168 9:0.8374 10:1.7401 11:1.7581 
-0 -0 -0 -0 -0 -79.30701597687444 -0 -0 -0 -0 -0 -0 0 0 1:1.7102 2:1.0686 3:3.3885 4:3.0831 5:1.6857 6:3.1449 7:2.6759 8:0.8669 9:0.8297 10:1.6287 11:2.046 
-0 -0 -0 -0 -381.8790004475713 -0 -0 -0 -0 -0 -0 -0 0 0 1:1.9042 2:1.0799 3:3.8921 4:4.0192 5:1.3446 6:3.9515 7:2.0482 8:0.904 9:1.4207 10:1.9066 11:2.0724 
-0 -0 -0 -0 -0 -0 -22.69151811464023 -0 -0 -0 -0 -0 0 0 1:1.9146 2:0.9634 3:3.812 4:2.7978 5:1.8692 6:3.6216 7:1.9065 8:1.4801 9:0.9399 10:1.9252 11:1.8264 
-0 -0 -0 -0 -0 -0 -0 -0 -0 -11.67096455159614 -5.040702136364719 -0.4047860300237543 0 0 1:1.5226 2:1.0145 3:3.2109 4:2.2797 5:1.6029 6:3.1829 7:1.4174 8:0.9987 9:0.8875 10:1.6391 11:1.5059 
-0 -0 -0 -0 -0 -0 -293.2996305836793 -0 -0 -0 -0 -0 0 0 1:1.982 2:1.0451 3:3.814 4:2.7016 5:1.9386 6:4.0313 7:1.6611 8:1.0043 9:0.8841 10:2.0327 11:1.8738 
-0 -0.8563271569229048 -0 -0 -0 -0 -0 -0 -2.022100730379579 -0 -0 -0 0 0 1:2.1392 2:1.1108 3:4.6718 4:3.7959 5:2.1151 6:4.3698 7:1.8815 8:0.8705 9:1.5466 10:2.0671 11:2.299 
-0 -0 -0 -0 -0 -5.659332223033178 -0 -0 -0 -0 -15.16624277608117 -11.61963375636762 4.526393134612774 0 1:1.5724 2:0.7875 3:3.1924 4:2.7323 5:1.1767 6:2.8592 7:1.7699 8:0.6427 9:0.6968 10:1.559 11:1.4918 
-0 -0 -0 -0 -0 -0 -34.5060765473034 -0 -0 -0 -0 -0 0 0 1:2.0773 2:1.0609 3:4.556 4:2.4214 5:2.8819 6:4.5153 7:2.043 8:0.8403 9:0.3257 10:2.0196 11:2.4825 
-0 -0 -0 -0 -78.69487390291485 -0 -0 -0 -0 -0 -0 -0 0 0 1:2.0862 2:0.9745 3:3.496 4:4.2474 5:1.2396 6:3.5481 7:2.3113 8:0.9396 9:2.2109 10:1.9422 11:2.3089 
-0 -0.2319675868053041 -0 -51.99403437596843 -0 -0 -0 -0 -0 -0 -0 -0 0 0 1:1.8468 2:1.0122 3:4.2999 4:3.3182 5:2.9484 6:4.7159 7:2.0991 8:0.846 9:0.5987 10:2.0411 11:2.1811 
-0 -0 -0 -0 -0 -0 -0 -0 -0 -0 -0 -0 0 60.57662401164258 1:2.1091 2:0.9431 3:3.0216 4:3.6707 5:1.9475 6:3.956 7:1.1754 8:0.9377 9:0.6453 10:2.1422 11:2.1541 
-14.58092202712459 -0 -0 -0 -0 -0 -0 -0 -0 -0 -0 -0 0 0 1:1.8425 2:0.957 3:4.3042 4:3.1936 5:2.1009 6:3.5545 7:1.8483 8:0.6535 9:0.6408 10:1.7084 11:3.1357 
-0 -0 -0 -0 -0 -0 -0 -0 -0 -12.50102061498386 -0 -0 0 0 1:1.8861 2:1.003 3:3.3681 4:2.839 5:2.113 6:3.0965 7:1.8003 8:0.7753 9:0.4554 10:1.6731 11:2.5217 
-12.09266061231968 -0 -0 -0 -0 -0 -61.40620564171196 -0 -0 -0 -0 -0 0 0 1:2.7861 2:1.0878 3:4.2462 4:3.1967 5:1.664 6:4.5588 7:1.8721 8:0.8394 9:0.4783 10:2.0924 11:2.3962 
-0 -0.07744313299150106 -0 -38.68829149439391 -0 -0 -0 -0.08492160157589622 -48.83456129639412 -0 -0 -0 0 0 1:1.878 2:1.1452 3:4.4435 4:3.8977 5:1.7035 6:4.5978 7:2.5698 8:0.9496 9:1.4697 10:2.3056 11:1.9728 
-0 -0 -0 -0 -0 -0 -158.1257211827321 -0 -0 -0 -0 -0 0 0 1:1.8816 2:1.0497 3:3.773 4:2.2602 5:2.491 6:3.8987 7:1.9349 8:0.8207 9:0.1511 10:1.9238 11:2.064 
-0 -0 -0.04660188845958458 -0 -149.2968061752844 -0 -0 -2.618711827955548 -10.17218298585952 -0 -0 -0 0 0 1:2.0884 2:1.0109 3:4.3094 4:4.4725 5:1.2045 6:4.1051 7:1.899 8:1.0257 9:3.1661 10:1.8177 11:2.0111 
-0 -0 -0 -0 -0 -0 -0 -0 -3.352580853979918 -0 -0 -0 0 0 1:2.0907 2:1.0222 3:4.4365 4:3.9466 5:3.3946 6:3.8296 7:2.4677 8:0.6809 9:1.4545 10:1.821 11:1.9548 
-0 -0 -0 -0 -0 -0 -0 -0 -0 -0.7921273697565379 -0 -0 0 0 1:2.173 2:0.8241 3:3.7024 4:2.8976 5:2.0873 6:3.2462 7:2.227 8:1.0461 9:1.9075 10:1.9472 11:2.0786 
-0 -0 -0 -11.2421660079234 -0 -0 -0 -0 -8.016982782265652 -0 -0 -0 0 0 1:2.2294 2:1.0497 3:3.9947 4:3.8707 5:1.8836 6:5.0592 7:2.3715 8:1.4209 9:0.5225 10:2.063 11:2.2359 
-0 -9.629520626779884 -2.244407289660843 -7.037785733514816 -0 -0 -0 -5.640237466844686 -0 -0 -0 -0 0 0 1:2.191 2:0.9979 3:5.1388 4:3.3746 5:2.648 6:5.1861 7:3.0924 8:1.4515 9:0.4714 10:2.0241 11:2.3546 
-1.955917772196152 -1.480669250283111 -0.5523230784968522 -2.610518196172042 -3.204060257171891 -16.21528911197034 -4.061664713085513 -1.435067434230424 -2.342784902265546 -7.976154403213022 -1.161814733476473 -0 -4.610513851131943 3.13954560588805 1:2.1361 2:0.9407 3:2.9765 4:0.0366 5:0.8749 6:0.0485 7:1.8277 8:1.0668 9:0.3867 10:0.1193 11:2.4018 
-0 -0 -0.2356777464421199 -0 -0 -0 -0 -0 -0 -0 -0 -0 -0 0 1:1.9093 2:1.1071 3:2.7155 4:0.0251 5:0.2051 6:0.2057 7:2.9192 8:1.1132 9:0.1163 10:0.0446 11:2.4884 
-2.657783717558289 -0.1761726613254269 -0.3809480796282092 -0 -0 -0 -1.173209614763262 -0.2210990455312374 -0 -0 -0.164944794809703 -0 -0 0 1:3.8403 2:1.0335 3:2.1252 4:0.0682 5:0.9782 6:0.1632 7:2.1426 8:0.949 9:0.1529 10:0.1253 11:2.1275 
-0 -0 -0.01887379410779159 -0.001528495127520167 -0.7148219787637458 -16.48638262976068 -0 -0 -0 -15.19712797550801 -0 -0 -2.847540242298292 0 1:1.7934 2:0.9624 3:2.0026 4:0.0759 5:1.0689 6:0.1288 7:2.4783 8:1.026 9:0.4247 10:0.1056 11:2.0758 
-0 -0.1389369745122311 -0 -0.1984850985084839 -0 -0 -0 -0.02865657858397739 -0.2832802177168638 -0 -0 -0 -0 0 1:2.3538 2:1.1144 3:2.3809 4:0.0557 5:1.0194 6:0.1257 7:2.867 8:1.1506 9:0.2768 10:0.1316 11:2.4367 
-0 -0 -0 -0 -0 -8.480172678794263 -0 -0 -0 -2.369668747240012 -8.193224048829615 -7.031827442676696 -0 1.122074085789822 1:1.9782 2:0.9141 3:2.0377 4:0.0382 5:0.8151 6:0.0417 7:1.7714 8:1.0365 9:0.117 10:0.0681 11:1.7338 
-3.540540032340024 -0 -0 -0 -0 -0.6121186868209763 -0 -0 -0 -0 -0 -0 -37.43309922462431 -0 1:1.9348 2:0.9831 3:2.6389 4:3.4774 5:1.7295 6:3.8451 7:0.459 8:0.0629 9:0 10:2.6383 11:2.1053 
-0 -0 -0 -0 -13.99694185510408 -7.023808412005869 -0 -0 -0 -0 -3.767311626982446 -10.15031124518037 -0 -0 1:1.5478 2:0.9652 3:3.0445 4:3.5493 5:1.6725 6:3.508 7:0.3875 8:0 9:0.0377 10:2.6644 11:1.9435 
-0 -0 -0 -0 -0.5929110119844275 -7.317361922601321 -23.50942074272951 -0 -0 -16.16257988627661 -14.9348287303639 -0 -7.629198028270513 -4.261619691677872 1:1.6518 2:0.9236 3:2.9843 4:2.9781 5:1.862 6:3.8317 7:0.4178 8:0.026 9:0.3386 10:2.7492 11:1.9605 
-8.757889835973012 -5.512094121976141 -1.869546096833708 -16.12646476724727 -2.115357094409858 -0 -0 -4.757354778064331 -12.31289332755016 -0 -0 -0 -15.51432675874777 -0 1:2.1632 2:1.0292 3:2.892 4:3.69 5:2.329 6:4.174 7:0.4145 8:0.0933 9:0.3081 10:3.1718 11:2.2245 
