svm_type c_svc
kernel_type rbf
gamma 0.0078125
nr_class 12
total_sv 42
rho 0 0.00380272 0 0 0 0.0206794 0 0 0 0 0 0.00851809 0 0 0 0 0 0 0 0 0 0 0 0 0.121535 0 0 2.77556e-17 0 0.075648 0 0.008108 0 0 0.0818399 0 0 0.383384 0.00591278 0 0 0 0 0 0 0.000676353 -0.0340548 0 -0.00352659 0 0.618308 0 0 0 0 0.0667488 0.0196661 0 0 0.881127 0 -0.195822 0.0208387 0 0 0
label 1 2 3 4 5 6 7 8 9 10 11 0
nr_sv 1 1 7 2 1 2 8 1 6 1 1 11
SV
24.32908591274589 11.62949935398831 3.627013672521872 2.073084781366325 6.060226541261531 12.07286044724547 5.10327512464491 3.86630593592574 1.297757958029631 2.18895970628106 11.20299686491071 1:0.0047 2:0.0234 3:1.2848 4:2.386 5:1.135 6:1.9543 7:0.0939 8:0.0796 9:0.2901 10:1.1488 11:1.3098 
-24.32908591274589 19.72750034772497 4.284635907682698 2.235697920682451 9.356959766204504 24.62327476385326 6.569014088918803 4.57737539178795 1.326971644621447 2.386098711278662 16.97229556522672 1:1.7208 2:1.1091 3:1.8679 4:2.3529 5:0.8574 6:1.6602 7:0.234 8:0.0297 9:0.1203 10:1.8368 11:1.7785 
-0 -0 4.808119332219659 2.425471386470766 17.38189744843619 0 7.344264591487382 5.85859447922665 1.377966826555412 2.729536912049586 32 1:1.9072 2:1.0832 3:2.9597 4:1.0695 5:1.6756 6:2.3259 7:1.9276 8:0.9002 9:0.1961 10:1.0589 11:1.8045 
-7.160744694058527 -0 0 0 0 32 0 0 0 0 0 1:1.6648 2:1.0761 3:2.5562 4:1.1571 5:1.5847 6:1.6727 7:1.8874 8:0.9144 9:0.1577 10:0.9276 11:1.8437 
-0 -15.20206320260263 0 0 0 32 0 0 0 0 0 1:1.6701 2:1.0938 3:2.7357 4:1.2488 5:1.4865 6:1.6969 7:1.9396 8:0.8422 9:0.1199 10:0.9819 11:1.8407 
-0 -0 0 0 0 32 0 0 0 0 0 1:1.7725 2:1.1021 3:2.8196 4:1.2508 5:1.6675 6:1.7916 7:2.1081 8:0.8074 9:0.1612 10:1.0124 11:1.8185 
-4.468754659929782 -0 0 0 0 0 0 0 0 0 0 1:1.7544 2:1.0349 3:2.6136 4:0.9338 5:1.5744 6:1.8558 7:1.6784 8:0.9394 9:0.1988 10:0.9515 11:1.66 
-0 -4.525437145122337 0 0 0 9.539582435555957 0 0 0 0 0 1:1.7569 2:1.0357 3:2.7435 4:0.9403 5:1.6045 6:1.8541 7:1.6062 8:0.9645 9:0.2451 10:0.9959 11:1.68 
-0 -0 0 0 0 0 0 0 0 0 2.264310634700385 1:1.8968 2:1.0464 3:2.9105 4:1.0271 5:1.7395 6:2.3297 7:2.0262 8:0.9602 9:0.1391 10:1.0015 11:1.9122 
-0 -0 -0 19.98298663014024 0 0 0 23.62550427819057 2.799564944164608 15.09980847601629 0 1:1.8556 2:1.0499 3:4.7246 4:5.6636 5:2.0555 6:5.5456 7:2.2882 8:0.8962 9:1.8192 10:2.7975 11:1.838 
-3.627013672521872 -4.284635907682698 -4.808119332219659 0 15.86070515274843 6.122419070668381 32 32 0 0 32 1:1.8388 2:1.0104 3:4.613 4:4.9776 5:2.0386 6:4.9869 7:2.1177 8:0.8907 9:1.5439 10:2.7183 11:1.9051 
-2.073084781366325 -2.235697920682451 -2.425471386470766 -19.98298663014024 4.554830684790956 2.635307896036031 5.840660668145989 25.06156787762906 5.444010675665809 32 6.623584901563433 1:1.9697 2:0.9581 3:5.8518 4:5.7782 5:2.9859 6:7.359 7:2.0522 8:0.986 9:1.8635 10:3.8204 11:1.8413 
-0 -0 -0 -0.9135397433475367 -0.770495880801215 0 4.332241259572157 0 0.5614222781242749 0 32 1:3.4767 2:1.0602 3:3.8125 4:3.2016 5:1.9006 6:3.6767 7:2.1911 8:0.9351 9:0.8759 10:1.8341 11:1.9773 
-6.060226541261531 -9.356959766204504 -17.38189744843619 -14.9471654094009 -3.784334803989741 22.56879850305563 24.27034406722844 22.06013238275816 1.192997726276599 5.303986901594084 32 1:2.5188 2:0.9925 3:3.8374 4:2.8416 5:1.9325 6:3.7336 7:1.893 8:0.9935 9:0.8612 10:1.9484 11:1.8201 
-2.246836645180061 -0 -32 -0 -0 -0 0 0 0 0 0 1:1.8789 2:0.9838 3:2.4814 4:1.1855 5:1.0902 6:1.1891 7:1.7763 8:0.934 9:0.6165 10:0.7061 11:1.8831 
-0 -0 -0 -0 -0 -20.44157425904584 0 6.461871711717261 0 0 32 1:1.9225 2:1.0214 3:2.9796 4:2.1506 5:1.1287 6:2.0693 7:1.9713 8:0.973 9:0.9672 10:1.0598 11:1.9092 
-0 -0 -32 -0 -0 -0 0 0 0 0 0 1:1.7568 2:1.0168 3:2.7047 4:2.0669 5:1.1119 6:1.9196 7:2.0613 8:0.9091 9:0.9045 10:0.9808 11:1.8954 
-0.5616896003310929 -0 -2.80836350566909 -0 -0 -0 0 0 0 0 0 1:1.792 2:1.0111 3:2.7944 4:2.0101 5:1.1004 6:1.8273 7:1.8861 8:0.91 9:0.9096 10:0.9897 11:1.8643 
-9.264334201734318 -24.62327476385326 -32 -0 -0 -0 0 0 0 0 0 1:1.8706 2:1.0269 3:2.7989 4:1.8336 5:1.0988 6:1.8996 7:1.7099 8:0.9487 9:0.9275 10:1.245 11:1.8098 
-0 -0 -6.731218929886868 -0 -0 -0 0 0 0 0 0 1:1.9408 2:0.9661 3:2.9225 4:1.7661 5:0.9607 6:1.8566 7:1.6423 8:1.0182 9:0.923 10:0.9998 11:1.7414 
-0 -0 -0 -0 -0 -2.127224244009795 0 0 0 0 0 1:1.9956 2:1.0057 3:3.0889 4:2.0706 5:1.1886 6:1.993 7:2.0091 8:1.0128 9:1.0012 10:1.0734 11:1.9849 
-0 -0 -0 -6.122419070668381 -2.635307896036031 -0 12.24412323222593 0 1.398281944751197 2.84478688535709 27.57560504528633 1:1.9323 2:1.0548 3:3.0267 4:2.2574 5:1.1649 6:1.9781 7:2.0941 8:0.9942 9:0.9821 10:1.0597 11:1.9805 
-5.10327512464491 -6.569014088918803 -7.344264591487382 -32 -5.840660668145989 -28.60258532680059 -12.24412323222593 21.23693633896538 1.868156005553731 5.78156663034496 32 1:1.8994 2:1.0019 3:3.9417 4:4.5868 5:1.3448 6:3.7832 7:2.165 8:0.9235 9:1.6951 10:1.9702 11:1.9634 
-0 -0 -0 -32 -0 -0 -0 -14.77536598063101 0 0 0 1:1.8624 2:1.0465 3:4.7071 4:4.3965 5:2.7436 6:5.3145 7:2.3032 8:0.939 9:0.8898 10:2.7645 11:1.9114 
-3.86630593592574 -4.57737539178795 -5.85859447922665 -0 -0 -22.06013238275816 -6.461871711717261 -6.461570358334369 0 0 32 1:1.7867 2:1.054 3:4.5669 4:3.8434 5:2.5617 6:5.4163 7:1.8886 8:0.9622 9:0.891 10:2.744 11:1.8066 
-0 -0 -0 -2.659174071386965 -0 -0 -0 -0 0 0 0 1:2.0017 2:1.0178 3:5.1522 4:4.5542 5:2.8665 6:5.7442 7:2.1962 8:0.9901 9:0.9252 10:3.0305 11:1.977 
-0 -0 -0 -3.236545194643997 -25.06156787762906 -0 -0 -0 3.184006725859545 32 0 1:1.9465 2:0.9939 3:5.0325 4:4.574 5:2.9244 6:6.0306 7:2.1528 8:0.9935 9:1.0198 10:3.0486 11:1.8945 
-0 -0 -0 -0 -0 -0 -0 -0 0 0 22.38495125306537 1:1.9179 2:1.0034 3:4.6925 4:3.8082 5:2.7511 6:5.5239 7:2.0355 8:0.9497 9:0.97 10:2.845 11:1.8494 
-0 -0 -0 -17.72978501215961 -0 -0 -0 -0 0 0 0 1:1.8671 2:1.027 3:4.701 4:4.3902 5:2.7447 6:5.4936 7:2.1757 8:0.939 9:0.9343 10:3.2866 11:1.8602 
-1.297757958029631 -1.326971644621447 -1.377966826555412 -2.799564944164608 -5.444010675665809 -1.754420004400874 -1.398281944751197 -1.868156005553731 -3.184006725859545 5.117532439802585 2.070376851369662 1:1.8392 2:0.9722 3:7.5064 4:7.3433 5:5.0707 6:10.9498 7:2.2975 8:0.9432 9:0.902 10:5.4165 11:1.8423 
-2.18895970628106 -2.386098711278662 -2.729536912049586 -15.09980847601629 -32 -5.303986901594084 -2.84478688535709 -5.78156663034496 -32 -5.117532439802585 8.590457991424502 1:1.9593 2:0.967 3:5.868 4:4.8785 5:3.6112 6:7.1644 7:2.139 8:0.9803 9:0.9717 10:3.816 11:1.8984 
-11.20299686491071 -16.97229556522672 -29.81019482936851 -0 -0 -0 -10.1366629495768 -0 -0 -0 -0 1:1.5226 2:1.0145 3:3.2109 4:2.2797 5:1.6029 6:3.1829 7:1.4174 8:0.9987 9:0.8875 10:1.6391 11:1.5059 
-0 -0 -4.45411580533187 -0 -0 -0 -32 -0 -0 -0 -0 1:1.4011 2:0.9739 3:3.5093 4:2.7293 5:1.694 6:2.9188 7:2.0349 8:0.876 9:0.8137 10:1.5364 11:1.8535 
-0 -0 -0 -0 -0 -0 -17.43894209570953 -0 -0 -0 -0 1:1.5202 2:0.9383 3:3.1718 4:2.737 5:1.713 6:3.0532 7:1.8195 8:0.8595 9:0.8623 10:1.5613 11:1.8055 
-0 -0 -0 -21.25210828760256 -0 -0 -0 -32 -0 -0 -0 1:1.9042 2:1.0799 3:3.8921 4:4.0192 5:1.3446 6:3.9515 7:2.0482 8:0.904 9:1.4207 10:1.9066 11:2.0724 
-0 -0 -0 -0 -0 -5.583591308673025 -0 -0 -0 -0 -0 1:1.9921 2:1.0352 3:3.8273 4:2.8532 5:1.945 6:3.6762 7:1.9425 8:0.9808 9:0.955 10:1.8973 11:1.8887 
-0 -0 -0 -0 -0 -32 -0 -0 -0 -0 -0 1:2.8574 2:1.0183 3:3.7894 4:3.3133 5:1.8461 6:3.7225 7:2.2132 8:0.938 9:0.8188 10:1.8728 11:1.8864 
-0 -0 -0 -10.74789171239744 -6.623584901563433 -0 -0 -0 -32 -2.070376851369662 -8.590457991424502 1:1.9545 2:1.0308 3:4.2081 4:3.2349 5:2.7279 6:4.6954 7:2.0751 8:0.9525 9:0.8076 10:1.9528 11:1.9305 
-0 -0 -0 -0 -0 -12.38598450168119 -0 -0 -0 -0 -0 1:2.0709 2:1.0698 3:3.976 4:2.9486 5:1.958 6:3.984 7:2.0005 8:1.0184 9:1.0825 10:2.012 11:1.881 
-0 -0 -0 -0 -0 -11.82814022820179 -0 -0 -0 -0 -0 1:1.9844 2:1.0243 3:3.8029 4:2.7951 5:1.9366 6:3.7445 7:1.8287 8:0.987 9:0.9055 10:1.9119 11:1.8899 
-0 -0 -0 -0 -0 -2.202283961443996 -0 -0 -0 -0 -0 1:2.0983 2:1.007 3:4.109 4:3.061 5:2.0723 6:4.0826 7:1.9483 8:1.0439 9:1.037 10:2.0814 11:1.9526 
-0 -0 -0 -0 -0 -0 -0 -0 -22.38495125306537 -0 -0 1:2.0067 2:1.0632 3:4.1819 4:3.2278 5:2.0936 6:4.2656 7:1.9523 8:1.0147 9:0.9361 10:2.1695 11:1.9221 
