svm_type c_svc
kernel_type rbf
gamma 0.5
nr_class 9
total_sv 31
rho 0 0.258414 0.177446 0 0.238106 0.111831 0.459827 0 0.263543 0.177375 0 0.24147 0.111831 0.463089 0 -0.0844947 -0.258005 0.0446253 -0.150387 0.238656 -0.258199 -0.18069 0.0627672 0.00439329 0.320388 -0.177481 0.237496 0.111642 0.459548 0 -0.129069 0.287815 -0.237883 0.415988 -0.111956 -0.471839
label 1 2 3 4 5 7 9 0 12
nr_sv 1 1 4 3 1 8 3 9 1
SV
1.073122829581932 1.260206618760018 1.177014086478321 1 1.240189820496253 1.111827627494177 1.460454032250607 1.000000012457274 1:0.0047 2:0.0234 3:1.2848 4:2.386 5:1.135 6:1.9543 7:0.0939 8:0.0796 9:0.2901 10:1.1488 11:1.3098 
-1.073122829581932 1.287427476385978 1.177226712791481 1 1.282685563315691 1.111827650749007 1.471430238688717 1.000018169251203 1:1.7208 2:1.1091 3:1.8679 4:2.3529 5:0.8574 6:1.6602 7:0.234 8:0.0297 9:0.1203 10:1.8368 11:1.7785 
-0.4474604418447332 -0.4684966301402875 0.5481159215464568 0.4433961315219123 2 0.5074367941527115 0.7415150719320249 0.4431195722313943 1:1.6648 2:1.0761 3:2.5562 4:1.1571 5:1.5847 6:1.6727 7:1.8874 8:0.9144 9:0.1577 10:0.9276 11:1.8437 
-0 -0 0 0 0 0 0.02582676029500365 0 1:2.01 2:1.0574 3:3.0197 4:0.9558 5:1.7475 6:2.1157 7:1.7291 8:0.9831 9:0.2213 10:1.0539 11:1.7907 
-0.2060481422063198 -0.2229646023943828 0.2529378838122517 0.2058624347051661 0.6628926781253689 0.2363048659227827 0.3721111739487221 0.2057351356958806 1:1.7569 2:1.0357 3:2.7435 4:0.9403 5:1.6045 6:1.8541 7:1.6062 8:0.9645 9:0.2451 10:0.9959 11:1.68 
-0.6066980347089649 -0.5959662438513074 0.7512847076640643 0.6082709560132911 0.7170792323323077 0.6965035106780826 1.136833054770274 0.6095973736507453 1:1.8819 2:1.0039 3:3.1262 4:1.1285 5:2.4904 6:3.0943 7:2.177 8:0.9433 9:0.1359 10:0.9724 11:1.8307 
-0.4750733138741309 -0.4752714375089089 -0.6266592684605726 0.4632182907449205 0.6141832695343379 1.563926121051658 0.8939278194803004 0.4765734058709202 1:1.8964 2:0.9626 3:4.7893 4:4.7552 5:2.0964 6:5.3053 7:1.9772 8:0.9853 9:1.8418 10:2.7918 11:1.8773 
-0.2415195185807518 -0.2419066222730631 -0.3180616177578003 0.3069496200440808 0.3112783066853704 0.3254368449876807 0.3280755069723374 0.2407097938236651 1:1.8556 2:1.0499 3:4.7246 4:5.6636 5:2.0555 6:5.5456 7:2.2882 8:0.8962 9:1.8192 10:2.7975 11:1.838 
-0.4604212540234383 -0.4600486530095088 -0.6076176268044001 0.4339918554068583 0.5956586776947869 0.2117740214627691 0.7371759897364485 0.4606102808312378 1:1.9188 2:0.9947 3:4.6363 4:5.6733 5:1.4391 6:5.4294 7:1.9203 8:0.8827 9:2.4076 10:2.7264 11:1.9079 
-1 -1 -1.25752952224037 -1.20415976619586 1.237722814863756 1.163518650809476 1.459743112572778 1.000000018595284 1:1.9697 2:0.9581 3:5.8518 4:5.7782 5:2.9859 6:7.359 7:2.0522 8:0.986 9:1.8635 10:3.8204 11:1.8413 
-0.5465627226837169 -0.5527940196678377 -2 -0.6682065770770528 -0.544034244469765 0.6213837598669225 0.8292623177955478 0.5441147542320652 1:1.8789 2:0.9838 3:2.4814 4:1.1855 5:1.0902 6:1.1891 7:1.7763 8:0.934 9:0.6165 10:0.7061 11:1.8831 
-0.3215340734996193 -0.3096857105489521 -0.2849185155187989 -0.3963332393137907 -0.3215392305041649 0.3665323637188785 0.5013447968971101 0.3125764417348386 1:1.8291 2:1.002 3:3.4675 4:2.0775 5:1.122 6:1.8912 7:2.033 8:0.9248 9:0.9022 10:1.0667 11:1.9049 
-0 -0 -0.5211034131403481 -0 -0 0 0 0 1:1.7414 2:1.0098 3:2.7775 4:2.0599 5:1.2045 6:1.8919 7:1.8828 8:0.9102 9:0.8906 10:1.0333 11:1.9555 
-0 -0.02223557750224045 -0 -0 -0 0 0.1919869633415212 0 1:1.765 2:1.0341 3:2.7229 4:2.1433 5:1.1298 6:1.8485 7:2.0143 8:0.9354 9:0.9385 10:1.2439 11:1.9053 
-0 -0.1537822690991958 -0 -0 -0 0 0 0 1:1.7835 2:1.0331 3:2.6285 4:2.1327 5:1.0309 6:1.7409 7:1.9078 8:0.9355 9:0.8915 10:1.141 11:1.9057 
-0 -0 -0.1619737684059291 -0 -0 0 0 0 1:1.8452 2:1.0183 3:2.8777 4:2.1824 5:1.1344 6:1.8888 7:2.2565 8:0.8958 9:0.7544 10:0.9687 11:2.0267 
-0.1617152341532037 -0.1409929165539608 -0.4119762133926003 -0.2006004471608431 -0.1632179528865177 0.1879410752423105 0.9333600851359136 0.1811860175627258 1:2.0151 2:1.004 3:3.1152 4:2.0566 5:1.1788 6:2.1544 7:1.9422 8:1.0343 9:0.9698 10:1.0652 11:2.0031 
-0.2103777901597128 -0.1031950699435035 -0 -0.2559799903628087 -0.2089313870033079 0.2380495056726696 0 0.2017333438997733 1:1.7741 2:1.0658 3:2.723 4:2.2151 5:0.9225 6:1.8206 7:2.2769 8:0.9357 9:0.8904 10:0.8718 11:1.9486 
-0.528819358381649 -0.5288194324657242 -0.6858305869428166 -1.205714185619634 -0.4749549339897637 -0.6734958349934069 1.300148831751213 0.5320621821370795 1:1.9013 2:0.9639 3:4.7301 4:4.2308 5:2.7755 6:5.2308 7:2.0817 8:0.9251 9:0.9171 10:2.7779 11:1.7451 
-0.3461780670345996 -0.3461780484243371 -0.4480536579670773 -0.895422801882474 -0.6329439946042406 -0.4417030418381677 0.2698981115970576 0.3403287769072862 1:1.9465 2:0.9939 3:5.0325 4:4.574 5:2.9244 6:6.0306 7:2.1528 8:0.9935 9:1.0198 10:3.0486 11:1.8945 
-0.236830202077928 -0.2368301698589458 -0.3063609258436827 -0 -0.05561972221547151 -0.2987078276692066 0.4474564383428651 0.2408772390661585 1:2.0233 2:1.0178 3:5.0367 4:4.228 5:2.9262 6:6.0303 7:2.2078 8:0.9984 9:1.0468 10:3.0052 11:2.025 
-0 -0 -0 -0 -0 -0.2130612383396898 -0 0 1:1.4011 2:0.9739 3:3.5093 4:2.7293 5:1.694 6:2.9188 7:2.0349 8:0.876 9:0.8137 10:1.5364 11:1.8535 
-0.3041853789433838 -0.3033538692041657 -0.4362467816071005 -0.5181535349498479 -0.3044570039210996 -0.4058004797110846 -0.3651723497498946 0.3188692552896776 1:1.9042 2:1.0799 3:3.8921 4:4.0192 5:1.3446 6:3.9515 7:2.0482 8:0.904 9:1.4207 10:1.9066 11:2.0724 
-0.1910710568752331 -0.1955716896702926 -0.2383207140150369 -0.1836504080381428 -0.1909430818635837 -0.1378991851631836 -0.182636028130322 0.1625964494507747 1:1.6755 2:1.1217 3:3.5784 4:3.8893 5:1.758 6:3.239 7:2.6141 8:0.884 9:0.8027 10:1.6918 11:1.9244 
-0.1062013229573892 -0.09164410281513977 -0.1478481113216209 -0.1492647648179512 -0.1063915910379661 -0.1870830916423022 -0.1019237294786667 0.1350478964836395 1:1.7102 2:1.0686 3:3.3885 4:3.0831 5:1.6857 6:3.1449 7:2.6759 8:0.8669 9:0.8297 10:1.6287 11:2.046 
-0.390070393546132 -0.4230700757886662 -0.839385158882424 -0.4931715070092665 -0.3880663372695471 -0.9604543791422905 -0.4227825442881845 0.3637638880293638 1:1.6435 2:0.9851 3:3.2558 4:2.4818 5:1.663 6:3.0089 7:1.6474 8:0.952 9:0.8225 10:1.627 11:1.5825 
-0.03566758239040044 -0.02866991269692529 -0 -0.01423728395478078 -0.03736869266481614 -0 -0 0.03880870137082119 1:1.9768 2:1.0079 3:3.932 4:2.9512 5:1.9139 6:3.6378 7:1.9339 8:1.5029 9:0.9879 10:1.9687 11:1.898 
-0.4196438227919577 -0.4202536369332087 -0.614485295119842 -0.600701817419097 -0.4197040262527141 -0.5516557891715423 -0.9449887300440684 0.3887291127829071 1:1.9545 2:1.0308 3:4.2081 4:3.2349 5:2.7279 6:4.6954 7:2.0751 8:0.9525 9:0.8076 10:1.9528 11:1.9305 
-0.01361447474611125 -0.008866951580318083 -0 -0 -0.0128123795630507 -0 -0 0 1:1.9803 2:1.0553 3:4.1002 4:2.8763 5:1.9609 6:4.0657 7:1.7346 8:1.0385 9:0.9934 10:2.0866 11:1.789 
-0 -0 -0 -0 -0 -0 -0 0.09833190213876151 1:2.0962 2:0.9762 3:4.2604 4:3.0732 5:2.1053 6:4.0217 7:1.8939 8:0.9808 9:1.0547 10:2.181 11:1.9764 
-1.000000012457274 -1.000018169251203 -1.25845208157802 -1.177893480525823 -1.000000018595284 -1.239610557429403 -1.113268198110524 -1.506147205545946 1:3.775 2:1.0367 3:3.8521 4:3.1609 5:1.8759 6:3.7754 7:1.9787 8:0.8871 9:0.9338 10:1.9 11:3.5279 
