svm_type c_svc
kernel_type rbf
gamma 0.125
nr_class 13
total_sv 58
rho 0 0.0369385 0.015035 0.00345299 0 0.0102253 0 0.00225409 0 0 0.0120778 0 0.0137136 0 0.00437029 0 0.0199346 0 0 0 0 0.0219884 0 0 0.00525607 -0.168892 -1.12261 0 -0.0919645 -0.0305313 -0.0517196 0.424874 -0.0508058 0.0232972 0.0356928 0 -0.346187 0.0930631 0 0 0.319044 0 0.0247291 -0.00551372 -0.000748878 -0.0293172 -0.00952149 -0.0263796 0.0877052 -0.00578881 0.00513523 4.44089e-16 -5.55112e-17 -0.0151129 -0.0386079 10.6838 0 -0.0300401 -0.0077149 -0.00428912 -0.00359846 0.628345 -0.0014751 0.00275666 0 0 -0.0884763 0 0 0 0.143374 0 0 0.00521755 0 0 0 -0.0930293
label 1 2 3 4 5 6 7 8 9 10 11 0 12
nr_sv 1 1 7 3 2 3 11 2 7 1 1 18 1
SV
2.303817694113744 1.78148604273702 1.33550425700835 1.170144485825108 1.481493817865144 1.736640559179008 1.450642956333719 1.399855118487612 1.051059942042249 1.20328357997538 1.813450916784397 1.17663179860674 1:-1 2:-1 3:-1 4:-0.54686 5:-0.868227 6:-0.843208 7:-1 8:-0.934338 9:-0.851204 10:-0.812033 11:-1 
-2.303817694113744 3.280746749162305 1.725770857364926 1.320328679031703 2.355517859767832 3.082653436531021 1.979688891830989 1.978291895410232 1.093971055409366 1.409566097922708 3.100172546128868 1.604873656448583 1:-0.0896746 2:0.835658 3:-0.812556 4:-0.557189 5:-1 6:-0.90347 7:-0.903496 8:-1 9:-0.99965 10:-0.519913 11:-0.577386 
-0.641069834460376 -0 4.063784388942056 2.006081338730338 15.18063046124192 46.83224363491282 6.664218212700104 4.257710686883095 0.6360223821870548 1.474708261562459 37.03564397302441 1.9728643042659 1:0.0351961 2:0.509172 3:-0.493249 4:-0.677167 5:-0.53248 6:-0.659389 7:0.185328 8:0.275873 9:-0.244044 10:-0.87241 11:-0.474686 
-0 -1.863988254833262 0 0 0 23.7918678950304 0 0 0 0 0.7358002911686053 0 1:-0.116569 2:0.80979 3:-0.533593 4:-0.901708 5:-0.701374 6:-0.89595 7:0.271362 8:0.0691493 9:-1 10:-0.882897 11:-0.521302 
-0 -0 0 0 0 0 0 0 0 0 3.760569749577062 0 1:-0.0622497 2:0.823823 3:-0.506622 4:-0.901084 5:-0.615456 6:-0.876546 7:0.387429 8:0.0233568 9:-0.963894 10:-0.869947 11:-0.541319 
-1.140416208276644 -0 0 0 0 0 0 0 0 0 0 0 1:-0.071851 2:0.710204 3:-0.572843 4:-1 5:-0.659649 6:-0.863391 7:0.0914414 8:0.197052 9:-0.931022 10:-0.895805 11:-0.684234 
-0 -1.416758494329043 0 0 0 0 0 0 0 0 0 0 1:-0.0705249 2:0.711556 3:-0.531085 4:-0.997972 5:-0.645361 6:-0.863739 7:0.0417083 8:0.230081 9:-0.890545 10:-0.876953 11:-0.666201 
-0 -0 0 0 1.962806751030653 0 0 1.216675252147268 0.6168364140034002 0.8320609889434705 0 0 1:-0.00421717 2:0.65779 3:-0.408062 4:-0.939246 5:-0.224836 6:-0.609618 7:0.434889 8:0.202184 9:-0.986012 10:-0.886931 11:-0.530319 
-0 -0 0 0 0 0 0 0 0 0 0 0.8436798577741892 1:0.0496777 2:0.659988 3:-0.436061 4:-0.965738 5:-0.547386 6:-0.830647 7:0.300982 8:0.246661 9:-0.987761 10:-0.850841 11:-0.36928 
-1.131783438691166 -1.725770857364926 -4.063784388942056 0 7.121982004018166 4.029806299406645 19.98316734291342 17.43304277479256 0 0 19.27875786360975 2.512038749911098 1:-0.0270801 2:0.66878 3:0.0698856 4:0.261814 5:-0.439299 6:-0.221818 7:0.394042 8:0.132969 9:0.244918 10:-0.145635 11:-0.463234 
-0.2037208183171842 -0 -0 0 0 0 4.969110095689016 0 0 0 0 0 1:0.0153569 2:0.642235 3:0.0773756 4:0.478899 5:-0.723874 6:-0.131148 7:0.258068 8:0.122442 9:1 10:-0.142196 11:-0.46071 
-0 -0 -0 19.52658577770664 0 0 0 0 1.991054906100487 7.043121720553249 0 0 1:0.0115906 2:0.656268 3:0.210364 4:0.452937 5:-0.351957 6:-0.0898604 7:0.437162 8:0.228633 9:0.395725 10:-0.0558339 11:-0.421397 
-0.3946149403476201 -0.6482629722317468 -0.545379462269049 -17.5722545898291 0.8766026921598573 1.241026589017275 4.110195928086056 5.774472849863202 1.884675187740616 2.619733914762282 3.018479485454979 1.086370204534759 1:-0.00846087 2:0.658466 3:0.401408 4:0.703908 5:-0.049676 6:0.263475 7:0.52478 8:0.193105 9:0.420291 10:0.2469 11:-0.487579 
-0.775529545477488 -0.6720657067999567 -1.460701876461289 -1.954331187877548 2.012368255758236 0.6839432401512766 0.06076450431923225 3.596601188449199 1.161298527130896 8.197237532406778 0.901646453791734 0.7285111689631345 1:0.0423574 2:0.580353 3:0.468111 4:0.511631 5:0.0103719 6:0.264233 7:0.348924 8:0.258372 9:0.524326 10:0.322308 11:-0.520761 
-0 -0 -0 -0 -0 0 0 0 0 0 181.8304636588419 0 1:0.841763 2:0.75298 3:-0.187444 4:-0.292363 5:-0.504806 6:-0.490282 7:0.444601 8:0.191394 9:-0.339074 10:-0.52106 11:-0.398134 
-1.481493817865144 -2.355517859767832 -17.14343721227258 -6.22642610706326 -1.403199845960963 13.86019820665226 8.965272241091485 13.02482813767618 0.5226513678235173 2.150719644136021 581.3775121939969 0 1:0.333634 2:0.638516 3:-0.179439 4:-0.404696 5:-0.489664 6:-0.478623 7:0.239263 8:0.268241 9:-0.351926 10:-0.472529 11:-0.539876 
-0 -0 -0 -0.8955558969549069 -1.48577110195713 0 0 0 0.90406841951545 1.403241453178509 0 4.987387070297857 1:0.862504 2:0.679094 3:-0.104185 4:-0.268711 5:-0.447986 6:-0.417583 7:0.298708 8:0.22258 9:-0.291778 10:-0.414742 11:-0.319598 
-1.076560518274861 -1.529681635937609 -21.37096621174985 -0 -0 -0 0 0 0 0 0 0 1:-0.00580856 2:0.623806 3:-0.61534 4:-0.92146 5:-0.889493 6:-1 7:0.158877 8:0.189947 9:-0.565852 10:-1 11:-0.483071 
-0 -0 -0 -0 -0.0205811250210118 -0.4053501204117773 0 3.201354767132664 0.5836814134096193 1.359227619753652 18.05740043826981 0 1:-0.0322256 2:0.654578 3:-0.298348 4:-0.643123 5:-0.874398 6:-0.856137 7:0.335698 8:0.177841 9:-0.316082 10:-0.846892 11:-0.463415 
-0 -0 -33.16798050243431 -0 -0 -0 0 0 0 0 0 0 1:-0.078747 2:0.667766 3:-0.520156 4:-0.648615 5:-0.835236 6:-0.855994 7:0.232237 8:0.158629 9:-0.326223 10:-0.861073 11:-0.41779 
-0 -0 -0 -0 -0 -0 3.284923722876078 0 0 0 0 0 1:0.0128107 2:0.59743 3:-0.510994 4:-0.704345 5:-0.903496 6:-0.858699 7:0.17658 8:0.240871 9:-0.0223368 10:-0.889224 11:-0.538253 
-0 -0 -0 -0 -0 -0 0 0 0 0 16.76250870784467 0 1:-0.0662282 2:0.708851 3:-0.537707 4:-0.622591 5:-0.870695 6:-0.864887 7:0.322817 8:0.191789 9:-0.284347 10:-0.771654 11:-0.463054 
-0 -0 -0 -0 -0 -0.3871037846670956 0 0 0 0 0 0 1:0.0240564 2:0.642235 3:-0.494921 4:-0.643529 5:-0.870933 6:-0.851035 7:0.326675 8:0.241134 9:-0.30323 10:-0.773607 11:-0.489653 
-0 -1.552971800593411 -0 -0 -0 -0 0 0 0 0 0 0 1:-0.0102114 2:0.696678 3:-0.513276 4:-0.719229 5:-0.88541 6:-0.854416 7:0.113139 8:0.20929 9:-0.293963 10:-0.771187 11:-0.549164 
-0.6600800409041467 -0 -0 -0 -0 -0 0 0 0 0 0 0 1:0.027027 2:0.593879 3:-0.473544 4:-0.740292 5:-0.950965 6:-0.863227 7:0.0665748 8:0.300743 9:-0.297897 10:-0.875297 11:-0.610838 
-0 -0 -0 -4.029806299406645 -1.90438870414754 -0 4.444145851333699 0 0 0 0 0 1:0.0529666 2:0.674191 3:-0.456635 4:-0.594103 5:-0.850521 6:-0.823824 7:0.387222 8:0.261136 9:-0.222625 10:-0.850501 11:-0.41761 
-0 -0 -0 -0 -0 -0 0 0 0.1980226110753895 0 0 0.07214387740595735 1:-0.0383789 2:0.749429 3:-0.491963 4:-0.573789 5:-0.879477 6:-0.856855 7:0.558395 8:0.144944 9:-0.392141 10:-0.882812 11:-0.343222 
-0 -0 -16.08516481575906 -0 -0 -13.06774430157339 0 1.431272813619703 0.4074936830640498 0.7065823333578547 0 2.869011695342375 1:0.0664403 2:0.657959 3:-0.411598 4:-0.649645 5:-0.847436 6:-0.802207 7:0.273153 8:0.321929 9:-0.256983 10:-0.847529 11:-0.37487 
-1.450642956333719 -1.979688891830989 -6.664218212700104 -0 -0 -8.965272241091485 -7.729069574209777 3.46352828614677 0 0 13.59278074498526 0 1:-0.0192823 2:0.621608 3:-0.182622 4:0.0381777 5:-0.818622 6:-0.481533 7:0.286172 8:0.164682 9:0.356646 10:-0.462126 11:-0.582616 
-0 -0 -0 -24.95227743860243 -4.170960432405288 -0 -0 3.859495925078595 1.402695042706945 3.148589674440357 52.24762792777005 2.695805479017111 1:0.00506591 2:0.654409 3:-0.145911 4:0.139871 5:-0.768637 6:-0.46846 7:0.426623 8:0.17613 9:0.377104 10:-0.463273 11:-0.410667 
-0.2587277512000704 -0 -0 -1.423534034817659 -0 -0 -0 -0 0 0 0 0 1:0.00607379 2:0.59016 3:0.107529 4:0.0287854 5:-0.0895023 6:-0.171842 7:0.369244 8:0.178235 9:-0.303055 10:-0.120329 11:-0.607502 
-0 -0 -0 -5.329158038783925 -0 -0 -0 -1.17264942827185 0 0 0 0 1:-0.0145612 2:0.729817 3:0.100135 4:0.0804899 5:-0.104645 6:-0.154692 7:0.521818 8:0.196526 9:-0.326922 10:-0.126019 11:-0.457554 
-1.141127367287541 -1.978291895410232 -5.474385939030363 -3.122408952903817 -0 -13.02482813767618 -4.632627580752367 -5.660106666191679 0 0 26.29004813159154 0 1:-0.0547171 2:0.742497 3:0.0550662 4:-0.0920977 5:-0.19099 6:-0.133833 7:0.236232 8:0.227054 9:-0.325873 10:-0.134723 11:-0.552049 
-0 -0 -0 -0.281786380554487 -0 -0 -0 -0 0 0 0 2.803208351538554 1:0.0753521 2:0.612309 3:0.16761 4:-0.0660738 5:-0.0934422 6:-0.113629 7:0.326537 8:0.234818 9:-0.240198 10:-0.0747283 11:-0.41229 
-0 -0 -0 -6.935505988910944 -9.3710740383124 -0 -0 -0 2.333821968553555 23.23894374078877 0 0 1:0.0300507 2:0.640883 3:0.204738 4:0.135876 5:-0.0188214 6:-0.00796049 7:0.418219 8:0.268241 9:-0.213271 10:-0.00539232 11:-0.472792 
-0 -0 -0 -0.3406493788217296 -0 -0 -0 -0 0 0 0 0 1:-0.012068 2:0.696847 3:0.0981741 4:0.0785241 5:-0.104123 6:-0.117994 7:0.433993 8:0.196526 9:-0.288019 10:0.0956607 11:-0.503719 
-0 -0 -0 -0 -0 -0 -0 -0.4902681167618345 0 0 13.59653307961387 0 1:0.00421717 2:0.69448 3:0.0857657 4:0.0209845 5:-0.158949 6:-0.184751 7:0.382745 8:0.192315 9:-0.369847 10:-0.131242 11:-0.460619 
-1.051059942042249 -1.093971055409366 -1.252858796190455 -1.991054906100487 -3.045973714871511 -1.426719787338967 -1.189197707549059 -1.402695042706945 -2.333821968553555 3.8080281014647 1.598409785186856 1.237548335231425 1:-0.0268679 2:0.604193 3:1 4:1 5:1 6:1 7:0.517892 8:0.202053 9:-0.316257 10:1 11:-0.519859 
-1.20328357997538 -1.409566097922708 -2.306769250505929 -7.043121720553249 -10.81697144716906 -3.55396109731453 -2.065809953111506 -3.148589674440357 -23.23894374078877 -3.8080281014647 5.390159367004181 1.972280395012923 1:0.0368406 2:0.595401 3:0.473319 4:0.230892 5:0.307194 6:0.224359 7:0.408714 8:0.250872 9:-0.255322 10:0.32044 11:-0.469276 
-0.7157064578403908 -1.156474444352867 -1.878311082594981 -0 -0 -0 -4.296021283786847 -0 -0 -0 -0 0 1:-0.194812 2:0.675712 3:-0.380835 4:-0.58003 5:-0.646121 6:-0.591464 7:-0.0883417 8:0.275084 9:-0.328933 10:-0.603855 11:-0.823182 
-0 -1.943698101776001 -0 -0 -0 -0 -0 -0 -0 -0 -0 0 1:-0.0995412 2:0.644264 3:-0.313521 4:-0.297324 5:-0.580946 6:-0.574457 7:0.131669 8:0.0558589 9:-0.417581 10:-0.553584 11:-0.625896 
-0 -0 -0 -0 -0 -0 -6.500135011437898 -0 -0 -0 -0 0 1:-0.259263 2:0.607067 3:-0.284911 4:-0.439738 5:-0.602877 6:-0.645579 7:0.337007 8:0.113626 9:-0.393452 10:-0.647461 11:-0.509761 
-1.097744458944006 -0 -27.53584870196121 -0 -0 -0 -1.775556908231652 -0 -0 -0 -0 0 1:-0.196085 2:0.546876 3:-0.393404 4:-0.437335 5:-0.593858 6:-0.61804 7:0.188634 8:0.0919139 9:-0.350964 10:-0.636889 11:-0.553041 
-0 -0 -0 -14.56462355601845 -2.146094957337522 -0 -0 -65.84040867275532 -0 -0.05349870773694398 -0 0.228913058463057 1:0.00761213 2:0.786288 3:-0.161855 4:-0.0372416 5:-0.768732 6:-0.433975 7:0.346168 8:0.15047 9:0.137212 10:-0.490277 11:-0.312384 
-0 -0 -3.184101609439798 -0 -0 -258.1921606187044 -0 -0 -0 -0 -0 2.743555626336452 1:0.801289 2:0.749768 3:-0.227594 4:-0.188611 5:-0.526737 6:-0.518518 7:0.458584 8:0.149155 9:-0.369847 10:-0.515837 11:-0.496867 
-0 -0 -0 -0 -0 -0 -11.0507927923034 -0 -0 -0 -0 0 1:-0.0952975 2:0.767182 3:-0.323743 4:-0.329339 5:-0.606817 6:-0.59925 7:0.778543 8:0.101651 9:-0.379464 10:-0.608271 11:-0.336189 
-0 -0 -5.115735067199119 -0 -0 -0 -11.19740315035468 -0 -0 -0 -0 0 1:-0.130679 2:0.626004 3:-0.366401 4:-0.516967 5:-0.617592 6:-0.627117 7:0.0700878 8:0.213632 9:-0.385759 10:-0.608993 11:-0.754114 
-0 -0 -0 -0 -0 -0 -0 -0 -0 -0 -0 0.1656775775071138 1:-0.00076917 2:0.699721 3:-0.271056 4:-0.255761 5:-0.588921 6:-0.590562 7:1 8:0.105994 9:-0.356122 10:-0.598293 11:-0.25594 
-0 -0 -0 -0 -0 -20.80571648250278 -0 -0 -0 -0 -0 0 1:0.0131289 2:0.589314 3:-0.187604 4:-0.418363 5:-0.519711 6:-0.501573 7:0.248562 8:0.908547 9:-0.283123 10:-0.482379 11:-0.534196 
-0 -0 -0 -0 -0 -0 -0 -0 -0 -0 -0 0.9608924884750537 1:0.0330743 2:0.60284 3:-0.142214 4:-0.303159 5:-0.459569 6:-0.476964 7:0.328397 8:0.205474 9:-0.226559 10:-0.449558 11:-0.306343 
-0 -0 -0 -0 -0 -180.4001321821356 -0 -0 -0 -0 -0 0 1:0.513248 2:0.682137 3:-0.194869 4:-0.257508 5:-0.530677 6:-0.480898 7:0.459824 8:0.19521 9:-0.388993 10:-0.504628 11:-0.480096 
-0 -0 -0 -3.438583456416038 -1.774030981909191 -0 -0 -0 -24.31709170671882 -1.544911077449912 -5.390159367004181 0 1:0.0342944 2:0.703272 3:-0.0602739 4:-0.281972 5:-0.112097 6:-0.281547 7:0.364698 8:0.21429 9:-0.398785 10:-0.470661 11:-0.440332 
-0 -0 -0 -0 -0 -130.2393322369876 -0 -0 -0 -0 -0 0 1:0.0488821 2:0.727449 3:-0.186962 4:-0.448381 5:-0.486768 6:-0.417624 7:0.0795247 8:0.282453 9:-0.331905 10:-0.436736 11:-0.491457 
-0 -0 -3.818017552574966 -0 -0 -0 -0 -0 -0 -0 -0 0 1:0.00676339 2:0.627526 3:-0.182783 4:-0.399672 5:-0.490281 6:-0.490938 7:0.304563 8:0.929995 9:-0.289242 10:-0.484502 11:-0.46098 
-0 -0 -0 -0 -0 -173.5706343325082 -0 -0 -0 -0 -0 0 1:0.0450627 2:0.612309 3:-0.165842 4:-0.438677 5:-0.476847 6:-0.491983 7:0.110728 8:0.290874 9:-0.227346 10:-0.458135 11:-0.57964 
-0 -0 -0 -1.275550851175264 -0 -0 -0 -0 -3.306568100498468 -0 -0 0 1:-0.00554333 2:0.664553 3:-0.111933 4:-0.171168 5:-0.44998 6:-0.460612 7:0.582917 8:0.22666 9:-0.328496 10:-0.314411 11:-0.382354 
-0 -0 -0 -0 -0 -0 -0 -0 -12.26292140398812 -0 -0 0 1:0.0619845 2:0.758052 3:-0.0686962 4:-0.284188 5:-0.413192 6:-0.369615 7:0.28011 8:0.296138 9:-0.286445 10:-0.378651 11:-0.447906 
-1.17663179860674 -1.604873656448583 -2.816544162040089 -2.512038749911098 -1.814881373497893 -4.987387070297857 -2.941155572748333 -2.695805479017111 -2.803208351538554 -1.237548335231425 -1.972280395012923 -4.099038750781677 1:1 2:0.713247 3:-0.174714 4:-0.305063 5:-0.516531 6:-0.470058 7:0.298295 8:0.128232 9:-0.288456 10:-0.493079 11:1 
